Language model created by QuickLM on Mon Nov  9 07:24:03 EST 2015
Copyright (c) 1996-2010 Carnegie Mellon University and Alexander I. Rudnicky

The model is in standard ARPA format, designed by Doug Paul while he was at MITRE.

The code that was used to produce this language model is available in Open Source.
Please visit http://www.speech.cs.cmu.edu/tools/ for more information

The (fixed) discount mass is 0.5. The backoffs are computed using the ratio method.
This model based on a corpus of 32 sentences and 34 words

\data\
ngram 1=34
ngram 2=64
ngram 3=32

\1-grams:
-0.7782 </s> -0.3010
-0.7782 <s> -0.2218
-2.2833 A -0.2218
-2.2833 B -0.2218
-2.2833 BACKSPACE -0.2218
-2.2833 C -0.2218
-2.2833 D -0.2218
-2.2833 E -0.2218
-2.2833 ENTER -0.2218
-2.2833 EXIT -0.2218
-2.2833 F -0.2218
-2.2833 G -0.2218
-2.2833 H -0.2218
-2.2833 I -0.2218
-2.2833 J -0.2218
-2.2833 K -0.2218
-2.2833 L -0.2218
-2.2833 M -0.2218
-2.2833 N -0.2218
-2.2833 O -0.2218
-2.2833 P -0.2218
-2.2833 Q -0.2218
-2.2833 R -0.2218
-2.2833 S -0.2218
-2.2833 SHIFT -0.2218
-2.2833 SPACE -0.2218
-2.2833 T -0.2218
-2.2833 TAB -0.2218
-2.2833 U -0.2218
-2.2833 V -0.2218
-2.2833 W -0.2218
-2.2833 X -0.2218
-2.2833 Y -0.2218
-2.2833 Z -0.2218

\2-grams:
-1.8062 <s> A 0.0000
-1.8062 <s> B 0.0000
-1.8062 <s> BACKSPACE 0.0000
-1.8062 <s> C 0.0000
-1.8062 <s> D 0.0000
-1.8062 <s> E 0.0000
-1.8062 <s> ENTER 0.0000
-1.8062 <s> EXIT 0.0000
-1.8062 <s> F 0.0000
-1.8062 <s> G 0.0000
-1.8062 <s> H 0.0000
-1.8062 <s> I 0.0000
-1.8062 <s> J 0.0000
-1.8062 <s> K 0.0000
-1.8062 <s> L 0.0000
-1.8062 <s> M 0.0000
-1.8062 <s> N 0.0000
-1.8062 <s> O 0.0000
-1.8062 <s> P 0.0000
-1.8062 <s> Q 0.0000
-1.8062 <s> R 0.0000
-1.8062 <s> S 0.0000
-1.8062 <s> SHIFT 0.0000
-1.8062 <s> SPACE 0.0000
-1.8062 <s> T 0.0000
-1.8062 <s> TAB 0.0000
-1.8062 <s> U 0.0000
-1.8062 <s> V 0.0000
-1.8062 <s> W 0.0000
-1.8062 <s> X 0.0000
-1.8062 <s> Y 0.0000
-1.8062 <s> Z 0.0000
-0.3010 A </s> -0.3010
-0.3010 B </s> -0.3010
-0.3010 BACKSPACE </s> -0.3010
-0.3010 C </s> -0.3010
-0.3010 D </s> -0.3010
-0.3010 E </s> -0.3010
-0.3010 ENTER </s> -0.3010
-0.3010 EXIT </s> -0.3010
-0.3010 F </s> -0.3010
-0.3010 G </s> -0.3010
-0.3010 H </s> -0.3010
-0.3010 I </s> -0.3010
-0.3010 J </s> -0.3010
-0.3010 K </s> -0.3010
-0.3010 L </s> -0.3010
-0.3010 M </s> -0.3010
-0.3010 N </s> -0.3010
-0.3010 O </s> -0.3010
-0.3010 P </s> -0.3010
-0.3010 Q </s> -0.3010
-0.3010 R </s> -0.3010
-0.3010 S </s> -0.3010
-0.3010 SHIFT </s> -0.3010
-0.3010 SPACE </s> -0.3010
-0.3010 T </s> -0.3010
-0.3010 TAB </s> -0.3010
-0.3010 U </s> -0.3010
-0.3010 V </s> -0.3010
-0.3010 W </s> -0.3010
-0.3010 X </s> -0.3010
-0.3010 Y </s> -0.3010
-0.3010 Z </s> -0.3010

\3-grams:
-0.3010 <s> A </s>
-0.3010 <s> B </s>
-0.3010 <s> BACKSPACE </s>
-0.3010 <s> C </s>
-0.3010 <s> D </s>
-0.3010 <s> E </s>
-0.3010 <s> ENTER </s>
-0.3010 <s> EXIT </s>
-0.3010 <s> F </s>
-0.3010 <s> G </s>
-0.3010 <s> H </s>
-0.3010 <s> I </s>
-0.3010 <s> J </s>
-0.3010 <s> K </s>
-0.3010 <s> L </s>
-0.3010 <s> M </s>
-0.3010 <s> N </s>
-0.3010 <s> O </s>
-0.3010 <s> P </s>
-0.3010 <s> Q </s>
-0.3010 <s> R </s>
-0.3010 <s> S </s>
-0.3010 <s> SHIFT </s>
-0.3010 <s> SPACE </s>
-0.3010 <s> T </s>
-0.3010 <s> TAB </s>
-0.3010 <s> U </s>
-0.3010 <s> V </s>
-0.3010 <s> W </s>
-0.3010 <s> X </s>
-0.3010 <s> Y </s>
-0.3010 <s> Z </s>

\end\
