Language model created by QuickLM on Sun Nov  8 04:57:57 EST 2015
Copyright (c) 1996-2010 Carnegie Mellon University and Alexander I. Rudnicky

The model is in standard ARPA format, designed by Doug Paul while he was at MITRE.

The code that was used to produce this language model is available in Open Source.
Please visit http://www.speech.cs.cmu.edu/tools/ for more information

The (fixed) discount mass is 0.5. The backoffs are computed using the ratio method.
This model based on a corpus of 36 sentences and 38 words

\data\
ngram 1=38
ngram 2=72
ngram 3=36

\1-grams:
-0.7782 </s> -0.3010
-0.7782 <s> -0.2218
-2.3345 ARE -0.2218
-2.3345 BACK -0.2218
-2.3345 BRIGHT -0.2218
-2.3345 BRIGHTNESS -0.2218
-2.3345 BROWSER -0.2218
-2.3345 CAN -0.2218
-2.3345 CHANGE -0.2218
-2.3345 COLOR -0.2218
-2.3345 COMPUTER -0.2218
-2.3345 E-MAIL -0.2218
-2.3345 EXPLORER -0.2218
-2.3345 FOR -0.2218
-2.3345 FORWARD -0.2218
-2.3345 GO -0.2218
-2.3345 GOOGLE -0.2218
-2.3345 HELLO -0.2218
-2.3345 HELPER -0.2218
-2.3345 HI -0.2218
-2.3345 HOW -0.2218
-2.3345 IS -0.2218
-2.3345 LAMP -0.2218
-2.3345 LESS -0.2218
-2.3345 MORE -0.2218
-2.3345 NEW -0.2218
-2.3345 OFF -0.2218
-2.3345 ON -0.2218
-2.3345 OPEN -0.2218
-2.3345 PLEASE -0.2218
-2.3345 SEARCH -0.2218
-2.3345 SETTINGS -0.2218
-2.3345 THANK -0.2218
-2.3345 THANKS -0.2218
-2.3345 WEB -0.2218
-2.3345 WIKI -0.2218
-2.3345 WIKIPEDIA -0.2218
-2.3345 YOU -0.2218

\2-grams:
-1.8573 <s> ARE 0.0000
-1.8573 <s> BACK 0.0000
-1.8573 <s> BRIGHT 0.0000
-1.8573 <s> BRIGHTNESS 0.0000
-1.8573 <s> BROWSER 0.0000
-1.8573 <s> CAN 0.0000
-1.8573 <s> CHANGE 0.0000
-1.8573 <s> COLOR 0.0000
-1.8573 <s> COMPUTER 0.0000
-1.8573 <s> E-MAIL 0.0000
-1.8573 <s> EXPLORER 0.0000
-1.8573 <s> FOR 0.0000
-1.8573 <s> FORWARD 0.0000
-1.8573 <s> GO 0.0000
-1.8573 <s> GOOGLE 0.0000
-1.8573 <s> HELLO 0.0000
-1.8573 <s> HELPER 0.0000
-1.8573 <s> HI 0.0000
-1.8573 <s> HOW 0.0000
-1.8573 <s> IS 0.0000
-1.8573 <s> LAMP 0.0000
-1.8573 <s> LESS 0.0000
-1.8573 <s> MORE 0.0000
-1.8573 <s> NEW 0.0000
-1.8573 <s> OFF 0.0000
-1.8573 <s> ON 0.0000
-1.8573 <s> OPEN 0.0000
-1.8573 <s> PLEASE 0.0000
-1.8573 <s> SEARCH 0.0000
-1.8573 <s> SETTINGS 0.0000
-1.8573 <s> THANK 0.0000
-1.8573 <s> THANKS 0.0000
-1.8573 <s> WEB 0.0000
-1.8573 <s> WIKI 0.0000
-1.8573 <s> WIKIPEDIA 0.0000
-1.8573 <s> YOU 0.0000
-0.3010 ARE </s> -0.3010
-0.3010 BACK </s> -0.3010
-0.3010 BRIGHT </s> -0.3010
-0.3010 BRIGHTNESS </s> -0.3010
-0.3010 BROWSER </s> -0.3010
-0.3010 CAN </s> -0.3010
-0.3010 CHANGE </s> -0.3010
-0.3010 COLOR </s> -0.3010
-0.3010 COMPUTER </s> -0.3010
-0.3010 E-MAIL </s> -0.3010
-0.3010 EXPLORER </s> -0.3010
-0.3010 FOR </s> -0.3010
-0.3010 FORWARD </s> -0.3010
-0.3010 GO </s> -0.3010
-0.3010 GOOGLE </s> -0.3010
-0.3010 HELLO </s> -0.3010
-0.3010 HELPER </s> -0.3010
-0.3010 HI </s> -0.3010
-0.3010 HOW </s> -0.3010
-0.3010 IS </s> -0.3010
-0.3010 LAMP </s> -0.3010
-0.3010 LESS </s> -0.3010
-0.3010 MORE </s> -0.3010
-0.3010 NEW </s> -0.3010
-0.3010 OFF </s> -0.3010
-0.3010 ON </s> -0.3010
-0.3010 OPEN </s> -0.3010
-0.3010 PLEASE </s> -0.3010
-0.3010 SEARCH </s> -0.3010
-0.3010 SETTINGS </s> -0.3010
-0.3010 THANK </s> -0.3010
-0.3010 THANKS </s> -0.3010
-0.3010 WEB </s> -0.3010
-0.3010 WIKI </s> -0.3010
-0.3010 WIKIPEDIA </s> -0.3010
-0.3010 YOU </s> -0.3010

\3-grams:
-0.3010 <s> ARE </s>
-0.3010 <s> BACK </s>
-0.3010 <s> BRIGHT </s>
-0.3010 <s> BRIGHTNESS </s>
-0.3010 <s> BROWSER </s>
-0.3010 <s> CAN </s>
-0.3010 <s> CHANGE </s>
-0.3010 <s> COLOR </s>
-0.3010 <s> COMPUTER </s>
-0.3010 <s> E-MAIL </s>
-0.3010 <s> EXPLORER </s>
-0.3010 <s> FOR </s>
-0.3010 <s> FORWARD </s>
-0.3010 <s> GO </s>
-0.3010 <s> GOOGLE </s>
-0.3010 <s> HELLO </s>
-0.3010 <s> HELPER </s>
-0.3010 <s> HI </s>
-0.3010 <s> HOW </s>
-0.3010 <s> IS </s>
-0.3010 <s> LAMP </s>
-0.3010 <s> LESS </s>
-0.3010 <s> MORE </s>
-0.3010 <s> NEW </s>
-0.3010 <s> OFF </s>
-0.3010 <s> ON </s>
-0.3010 <s> OPEN </s>
-0.3010 <s> PLEASE </s>
-0.3010 <s> SEARCH </s>
-0.3010 <s> SETTINGS </s>
-0.3010 <s> THANK </s>
-0.3010 <s> THANKS </s>
-0.3010 <s> WEB </s>
-0.3010 <s> WIKI </s>
-0.3010 <s> WIKIPEDIA </s>
-0.3010 <s> YOU </s>

\end\