Language model created by QuickLM on Sun Nov  8 07:09:34 EST 2015
Copyright (c) 1996-2010 Carnegie Mellon University and Alexander I. Rudnicky

The model is in standard ARPA format, designed by Doug Paul while he was at MITRE.

The code that was used to produce this language model is available in Open Source.
Please visit http://www.speech.cs.cmu.edu/tools/ for more information

The (fixed) discount mass is 0.5. The backoffs are computed using the ratio method.
This model based on a corpus of 45 sentences and 50 words

\data\
ngram 1=50
ngram 2=93
ngram 3=48

\1-grams:
-0.7877 </s> -0.3010
-0.7877 <s> -0.2237
-2.4409 ABOUT -0.2995
-2.4409 ARE -0.2237
-2.4409 BACK -0.2237
-2.4409 BRIGHT -0.2237
-2.4409 BRIGHTNESS -0.2237
-2.4409 BROWSER -0.2237
-2.4409 CAN -0.2237
-2.4409 CHANGE -0.2237
-2.4409 COACHES -0.2995
-2.4409 COLOR -0.2237
-2.4409 COMPUTER -0.2237
-2.4409 E-MAIL -0.2237
-2.4409 ENTER -0.2237
-2.4409 EXPLORER -0.2237
-2.4409 FOR -0.2237
-2.4409 FORWARD -0.2237
-2.4409 GO -0.2237
-2.4409 GOOGLE -0.2237
-2.4409 HELLO -0.2237
-2.4409 HELPER -0.2237
-2.4409 HI -0.2237
-2.4409 HOW -0.2237
-2.4409 IS -0.2237
-2.4409 LAMP -0.2237
-2.4409 LESS -0.2237
-2.4409 MAKE -0.2995
-2.4409 MORE -0.2237
-2.4409 MUSIC -0.2237
-2.4409 NEW -0.2237
-2.4409 OFF -0.2237
-2.4409 ON -0.2237
-2.4409 OPEN -0.2237
-2.4409 PLAY -0.2237
-2.4409 PLEASE -0.2237
-2.4409 PRESS -0.2237
-2.4409 SEARCH -0.2237
-2.4409 SETTINGS -0.2237
-2.4409 SMILE -0.2237
-2.4409 SPACE -0.2237
-2.4409 THANK -0.2237
-2.4409 THANKS -0.2237
-2.4409 US -0.2237
-2.4409 VIDEO -0.2237
-2.4409 WEB -0.2237
-2.4409 WIKI -0.2237
-2.4409 WIKIPEDIA -0.2237
-2.4409 YOU -0.2237
-2.4409 YOUTUBE -0.2237

\2-grams:
-1.9542 <s> ABOUT 0.0000
-1.9542 <s> ARE 0.0000
-1.9542 <s> BACK 0.0000
-1.9542 <s> BRIGHT 0.0000
-1.9542 <s> BRIGHTNESS 0.0000
-1.9542 <s> BROWSER 0.0000
-1.9542 <s> CAN 0.0000
-1.9542 <s> CHANGE 0.0000
-1.9542 <s> COLOR 0.0000
-1.9542 <s> COMPUTER 0.0000
-1.9542 <s> E-MAIL 0.0000
-1.9542 <s> ENTER 0.0000
-1.9542 <s> EXPLORER 0.0000
-1.9542 <s> FOR 0.0000
-1.9542 <s> FORWARD 0.0000
-1.9542 <s> GO 0.0000
-1.9542 <s> GOOGLE 0.0000
-1.9542 <s> HELLO 0.0000
-1.9542 <s> HELPER 0.0000
-1.9542 <s> HI 0.0000
-1.9542 <s> HOW 0.0000
-1.9542 <s> IS 0.0000
-1.9542 <s> LAMP 0.0000
-1.9542 <s> LESS 0.0000
-1.9542 <s> MAKE 0.0000
-1.9542 <s> MORE 0.0000
-1.9542 <s> MUSIC 0.0000
-1.9542 <s> NEW 0.0000
-1.9542 <s> OFF 0.0000
-1.9542 <s> ON 0.0000
-1.9542 <s> OPEN 0.0000
-1.9542 <s> PLAY 0.0000
-1.9542 <s> PLEASE 0.0000
-1.9542 <s> PRESS 0.0000
-1.9542 <s> SEARCH 0.0000
-1.9542 <s> SETTINGS 0.0000
-1.9542 <s> SPACE 0.0000
-1.9542 <s> THANK 0.0000
-1.9542 <s> THANKS 0.0000
-1.9542 <s> VIDEO 0.0000
-1.9542 <s> WEB 0.0000
-1.9542 <s> WIKI 0.0000
-1.9542 <s> WIKIPEDIA 0.0000
-1.9542 <s> YOU 0.0000
-1.9542 <s> YOUTUBE 0.0000
-0.3010 ABOUT US 0.0000
-0.3010 ARE </s> -0.3010
-0.3010 BACK </s> -0.3010
-0.3010 BRIGHT </s> -0.3010
-0.3010 BRIGHTNESS </s> -0.3010
-0.3010 BROWSER </s> -0.3010
-0.3010 CAN </s> -0.3010
-0.3010 CHANGE </s> -0.3010
-0.3010 COACHES SMILE 0.0000
-0.3010 COLOR </s> -0.3010
-0.3010 COMPUTER </s> -0.3010
-0.3010 E-MAIL </s> -0.3010
-0.3010 ENTER </s> -0.3010
-0.3010 EXPLORER </s> -0.3010
-0.3010 FOR </s> -0.3010
-0.3010 FORWARD </s> -0.3010
-0.3010 GO </s> -0.3010
-0.3010 GOOGLE </s> -0.3010
-0.3010 HELLO </s> -0.3010
-0.3010 HELPER </s> -0.3010
-0.3010 HI </s> -0.3010
-0.3010 HOW </s> -0.3010
-0.3010 IS </s> -0.3010
-0.3010 LAMP </s> -0.3010
-0.3010 LESS </s> -0.3010
-0.3010 MAKE COACHES 0.0000
-0.3010 MORE </s> -0.3010
-0.3010 MUSIC </s> -0.3010
-0.3010 NEW </s> -0.3010
-0.3010 OFF </s> -0.3010
-0.3010 ON </s> -0.3010
-0.3010 OPEN </s> -0.3010
-0.3010 PLAY </s> -0.3010
-0.3010 PLEASE </s> -0.3010
-0.3010 PRESS </s> -0.3010
-0.3010 SEARCH </s> -0.3010
-0.3010 SETTINGS </s> -0.3010
-0.3010 SMILE </s> -0.3010
-0.3010 SPACE </s> -0.3010
-0.3010 THANK </s> -0.3010
-0.3010 THANKS </s> -0.3010
-0.3010 US </s> -0.3010
-0.3010 VIDEO </s> -0.3010
-0.3010 WEB </s> -0.3010
-0.3010 WIKI </s> -0.3010
-0.3010 WIKIPEDIA </s> -0.3010
-0.3010 YOU </s> -0.3010
-0.3010 YOUTUBE </s> -0.3010

\3-grams:
-0.3010 <s> ABOUT US
-0.3010 <s> ARE </s>
-0.3010 <s> BACK </s>
-0.3010 <s> BRIGHT </s>
-0.3010 <s> BRIGHTNESS </s>
-0.3010 <s> BROWSER </s>
-0.3010 <s> CAN </s>
-0.3010 <s> CHANGE </s>
-0.3010 <s> COLOR </s>
-0.3010 <s> COMPUTER </s>
-0.3010 <s> E-MAIL </s>
-0.3010 <s> ENTER </s>
-0.3010 <s> EXPLORER </s>
-0.3010 <s> FOR </s>
-0.3010 <s> FORWARD </s>
-0.3010 <s> GO </s>
-0.3010 <s> GOOGLE </s>
-0.3010 <s> HELLO </s>
-0.3010 <s> HELPER </s>
-0.3010 <s> HI </s>
-0.3010 <s> HOW </s>
-0.3010 <s> IS </s>
-0.3010 <s> LAMP </s>
-0.3010 <s> LESS </s>
-0.3010 <s> MAKE COACHES
-0.3010 <s> MORE </s>
-0.3010 <s> MUSIC </s>
-0.3010 <s> NEW </s>
-0.3010 <s> OFF </s>
-0.3010 <s> ON </s>
-0.3010 <s> OPEN </s>
-0.3010 <s> PLAY </s>
-0.3010 <s> PLEASE </s>
-0.3010 <s> PRESS </s>
-0.3010 <s> SEARCH </s>
-0.3010 <s> SETTINGS </s>
-0.3010 <s> SPACE </s>
-0.3010 <s> THANK </s>
-0.3010 <s> THANKS </s>
-0.3010 <s> VIDEO </s>
-0.3010 <s> WEB </s>
-0.3010 <s> WIKI </s>
-0.3010 <s> WIKIPEDIA </s>
-0.3010 <s> YOU </s>
-0.3010 <s> YOUTUBE </s>
-0.3010 ABOUT US </s>
-0.3010 COACHES SMILE </s>
-0.3010 MAKE COACHES SMILE

\end\