Language model created by QuickLM on Mon Nov  9 11:50:02 EST 2015
Copyright (c) 1996-2010 Carnegie Mellon University and Alexander I. Rudnicky

The model is in standard ARPA format, designed by Doug Paul while he was at MITRE.

The code that was used to produce this language model is available in Open Source.
Please visit http://www.speech.cs.cmu.edu/tools/ for more information

The (fixed) discount mass is 0.5. The backoffs are computed using the ratio method.
This model based on a corpus of 47 sentences and 51 words

\data\
ngram 1=51
ngram 2=96
ngram 3=49

\1-grams:
-0.7843 </s> -0.3010
-0.7843 <s> -0.2231
-2.4564 ABOUT -0.2995
-2.4564 ARE -0.2231
-2.4564 BACK -0.2231
-2.4564 BRIGHT -0.2231
-2.4564 BRIGHTNESS -0.2231
-2.4564 BROWSER -0.2231
-2.4564 CAN -0.2231
-2.4564 CHANGE -0.2231
-2.4564 COLOR -0.2231
-2.4564 COMPUTER -0.2231
-2.4564 DOWN -0.2231
-2.4564 E-MAIL -0.2231
-2.4564 EMAIL -0.2231
-2.4564 ENTER -0.2231
-2.4564 EXPLORER -0.2231
-2.4564 FOR -0.2231
-2.4564 FORWARD -0.2231
-2.4564 GO -0.2231
-2.4564 GOOGLE -0.2231
-2.4564 HELLO -0.2231
-2.4564 HI -0.2231
-2.4564 HOW -0.2231
-2.4564 IS -0.2231
-2.4564 KEYBOARD -0.2231
-2.4564 LAMP -0.2231
-2.4564 LESS -0.2231
-2.4564 MORE -0.2231
-2.4564 MUSIC -0.2231
-2.4564 NEW -0.2231
-2.4564 OFF -0.2231
-2.4564 ON -0.2231
-2.4564 OPEN -0.2231
-2.4564 PLAY -0.2231
-2.4564 PLEASE -0.2231
-2.4564 PRESS -0.2231
-2.4564 SEARCH -0.2231
-2.4564 SETTINGS -0.2231
-2.4564 SHUT -0.2995
-2.4564 SPACE -0.2231
-2.4564 THANK -0.2231
-2.4564 THANKS -0.2231
-2.4564 US -0.2231
-2.4564 VIDEO -0.2231
-2.4564 VIRTUAL -0.2231
-2.4564 WEB -0.2231
-2.4564 WIKI -0.2231
-2.4564 WIKIPEDIA -0.2231
-2.4564 YOU -0.2231
-2.4564 YOUTUBE -0.2231

\2-grams:
-1.9731 <s> ABOUT 0.0000
-1.9731 <s> ARE 0.0000
-1.9731 <s> BACK 0.0000
-1.9731 <s> BRIGHT 0.0000
-1.9731 <s> BRIGHTNESS 0.0000
-1.9731 <s> BROWSER 0.0000
-1.9731 <s> CAN 0.0000
-1.9731 <s> CHANGE 0.0000
-1.9731 <s> COLOR 0.0000
-1.9731 <s> COMPUTER 0.0000
-1.9731 <s> E-MAIL 0.0000
-1.9731 <s> EMAIL 0.0000
-1.9731 <s> ENTER 0.0000
-1.9731 <s> EXPLORER 0.0000
-1.9731 <s> FOR 0.0000
-1.9731 <s> FORWARD 0.0000
-1.9731 <s> GO 0.0000
-1.9731 <s> GOOGLE 0.0000
-1.9731 <s> HELLO 0.0000
-1.9731 <s> HI 0.0000
-1.9731 <s> HOW 0.0000
-1.9731 <s> IS 0.0000
-1.9731 <s> KEYBOARD 0.0000
-1.9731 <s> LAMP 0.0000
-1.9731 <s> LESS 0.0000
-1.9731 <s> MORE 0.0000
-1.9731 <s> MUSIC 0.0000
-1.9731 <s> NEW 0.0000
-1.9731 <s> OFF 0.0000
-1.9731 <s> ON 0.0000
-1.9731 <s> OPEN 0.0000
-1.9731 <s> PLAY 0.0000
-1.9731 <s> PLEASE 0.0000
-1.9731 <s> PRESS 0.0000
-1.9731 <s> SEARCH 0.0000
-1.9731 <s> SETTINGS 0.0000
-1.9731 <s> SHUT 0.0000
-1.9731 <s> SPACE 0.0000
-1.9731 <s> THANK 0.0000
-1.9731 <s> THANKS 0.0000
-1.9731 <s> VIDEO 0.0000
-1.9731 <s> VIRTUAL 0.0000
-1.9731 <s> WEB 0.0000
-1.9731 <s> WIKI 0.0000
-1.9731 <s> WIKIPEDIA 0.0000
-1.9731 <s> YOU 0.0000
-1.9731 <s> YOUTUBE 0.0000
-0.3010 ABOUT US 0.0000
-0.3010 ARE </s> -0.3010
-0.3010 BACK </s> -0.3010
-0.3010 BRIGHT </s> -0.3010
-0.3010 BRIGHTNESS </s> -0.3010
-0.3010 BROWSER </s> -0.3010
-0.3010 CAN </s> -0.3010
-0.3010 CHANGE </s> -0.3010
-0.3010 COLOR </s> -0.3010
-0.3010 COMPUTER </s> -0.3010
-0.3010 DOWN </s> -0.3010
-0.3010 E-MAIL </s> -0.3010
-0.3010 EMAIL </s> -0.3010
-0.3010 ENTER </s> -0.3010
-0.3010 EXPLORER </s> -0.3010
-0.3010 FOR </s> -0.3010
-0.3010 FORWARD </s> -0.3010
-0.3010 GO </s> -0.3010
-0.3010 GOOGLE </s> -0.3010
-0.3010 HELLO </s> -0.3010
-0.3010 HI </s> -0.3010
-0.3010 HOW </s> -0.3010
-0.3010 IS </s> -0.3010
-0.3010 KEYBOARD </s> -0.3010
-0.3010 LAMP </s> -0.3010
-0.3010 LESS </s> -0.3010
-0.3010 MORE </s> -0.3010
-0.3010 MUSIC </s> -0.3010
-0.3010 NEW </s> -0.3010
-0.3010 OFF </s> -0.3010
-0.3010 ON </s> -0.3010
-0.3010 OPEN </s> -0.3010
-0.3010 PLAY </s> -0.3010
-0.3010 PLEASE </s> -0.3010
-0.3010 PRESS </s> -0.3010
-0.3010 SEARCH </s> -0.3010
-0.3010 SETTINGS </s> -0.3010
-0.3010 SHUT DOWN 0.0000
-0.3010 SPACE </s> -0.3010
-0.3010 THANK </s> -0.3010
-0.3010 THANKS </s> -0.3010
-0.3010 US </s> -0.3010
-0.3010 VIDEO </s> -0.3010
-0.3010 VIRTUAL </s> -0.3010
-0.3010 WEB </s> -0.3010
-0.3010 WIKI </s> -0.3010
-0.3010 WIKIPEDIA </s> -0.3010
-0.3010 YOU </s> -0.3010
-0.3010 YOUTUBE </s> -0.3010

\3-grams:
-0.3010 <s> ABOUT US
-0.3010 <s> ARE </s>
-0.3010 <s> BACK </s>
-0.3010 <s> BRIGHT </s>
-0.3010 <s> BRIGHTNESS </s>
-0.3010 <s> BROWSER </s>
-0.3010 <s> CAN </s>
-0.3010 <s> CHANGE </s>
-0.3010 <s> COLOR </s>
-0.3010 <s> COMPUTER </s>
-0.3010 <s> E-MAIL </s>
-0.3010 <s> EMAIL </s>
-0.3010 <s> ENTER </s>
-0.3010 <s> EXPLORER </s>
-0.3010 <s> FOR </s>
-0.3010 <s> FORWARD </s>
-0.3010 <s> GO </s>
-0.3010 <s> GOOGLE </s>
-0.3010 <s> HELLO </s>
-0.3010 <s> HI </s>
-0.3010 <s> HOW </s>
-0.3010 <s> IS </s>
-0.3010 <s> KEYBOARD </s>
-0.3010 <s> LAMP </s>
-0.3010 <s> LESS </s>
-0.3010 <s> MORE </s>
-0.3010 <s> MUSIC </s>
-0.3010 <s> NEW </s>
-0.3010 <s> OFF </s>
-0.3010 <s> ON </s>
-0.3010 <s> OPEN </s>
-0.3010 <s> PLAY </s>
-0.3010 <s> PLEASE </s>
-0.3010 <s> PRESS </s>
-0.3010 <s> SEARCH </s>
-0.3010 <s> SETTINGS </s>
-0.3010 <s> SHUT DOWN
-0.3010 <s> SPACE </s>
-0.3010 <s> THANK </s>
-0.3010 <s> THANKS </s>
-0.3010 <s> VIDEO </s>
-0.3010 <s> VIRTUAL </s>
-0.3010 <s> WEB </s>
-0.3010 <s> WIKI </s>
-0.3010 <s> WIKIPEDIA </s>
-0.3010 <s> YOU </s>
-0.3010 <s> YOUTUBE </s>
-0.3010 ABOUT US </s>
-0.3010 SHUT DOWN </s>

\end\